digraph Tree {
node [shape=box] ;
0 [label="QKDJ1 <= 0.5\ngini = 0.6518\nsamples = 222732\nvalue = [110217, 62030, 32628, 14174, 3683]"] ;
1 [label="adrg <= 368.5\ngini = 0.7222\nsamples = 123044\nvalue = [46087, 35314, 25862, 12457, 3324]"] ;
0 -> 1 [labeldistance=2.5, labelangle=45, headlabel="True"] ;
2 [label="adrg <= 225.5\ngini = 0.6706\nsamples = 80245\nvalue = [37560, 22418, 13219, 5553, 1495]"] ;
1 -> 2 ;
3 [label="adrg <= 194.5\ngini = 0.6874\nsamples = 48666\nvalue = [21041, 14290, 8939, 3573, 823]"] ;
2 -> 3 ;
4 [label="(...)"] ;
3 -> 4 ;
31539 [label="(...)"] ;
3 -> 31539 ;
36612 [label="adrg <= 257.5\ngini = 0.6374\nsamples = 31579\nvalue = [16519, 8128, 4280, 1980, 672]"] ;
2 -> 36612 ;
36613 [label="(...)"] ;
36612 -> 36613 ;
40622 [label="(...)"] ;
36612 -> 40622 ;
53515 [label="adrg <= 385.5\ngini = 0.7544\nsamples = 42799\nvalue = [8527, 12896, 12643, 6904, 1829]"] ;
1 -> 53515 ;
53516 [label="adrg <= 370.5\ngini = 0.7315\nsamples = 12413\nvalue = [3662, 3884, 3338, 1296, 233]"] ;
53515 -> 53516 ;
53517 [label="(...)"] ;
53516 -> 53517 ;
54972 [label="(...)"] ;
53516 -> 54972 ;
59035 [label="SJZYTS <= 7.5\ngini = 0.7558\nsamples = 30386\nvalue = [4865, 9012, 9305, 5608, 1596]"] ;
53515 -> 59035 ;
59036 [label="(...)"] ;
59035 -> 59036 ;
62275 [label="(...)"] ;
59035 -> 62275 ;
68320 [label="QKDJ1 <= 3.5\ngini = 0.5094\nsamples = 99688\nvalue = [64130, 26716, 6766, 1717, 359]"] ;
0 -> 68320 [labeldistance=2.5, labelangle=-45, headlabel="False"] ;
68321 [label="adrg <= 348.5\ngini = 0.5048\nsamples = 97645\nvalue = [63309, 25865, 6460, 1656, 355]"] ;
68320 -> 68321 ;
68322 [label="adrg <= 295.5\ngini = 0.4925\nsamples = 82025\nvalue = [54313, 20873, 5202, 1327, 310]"] ;
68321 -> 68322 ;
68323 [label="(...)"] ;
68322 -> 68323 ;
114572 [label="(...)"] ;
68322 -> 114572 ;
119127 [label="QKDJ1 <= 2.5\ngini = 0.5592\nsamples = 15620\nvalue = [8996, 4992, 1258, 329, 45]"] ;
68321 -> 119127 ;
119128 [label="(...)"] ;
119127 -> 119128 ;
124009 [label="(...)"] ;
119127 -> 124009 ;
130412 [label="adrg <= 65.5\ngini = 0.6417\nsamples = 2043\nvalue = [821, 851, 306, 61, 4]"] ;
68320 -> 130412 ;
130413 [label="adrg <= 57.0\ngini = 0.5852\nsamples = 768\nvalue = [231, 425, 103, 9, 0]"] ;
130412 -> 130413 ;
130414 [label="(...)"] ;
130413 -> 130414 ;
130489 [label="(...)"] ;
130413 -> 130489 ;
130980 [label="SJZYTS <= 4.5\ngini = 0.6472\nsamples = 1275\nvalue = [590, 426, 203, 52, 4]"] ;
130412 -> 130980 ;
130981 [label="(...)"] ;
130980 -> 130981 ;
131114 [label="(...)"] ;
130980 -> 131114 ;
}