digraph Tree {
node [shape=box] ;
0 [label="QKDJ1 <= 0.5\ngini = 0.6554\nsamples = 296977\nvalue = [145781, 82351, 44112, 19560, 5173]"] ;
1 [label="adrg <= 96.5\ngini = 0.7248\nsamples = 163995\nvalue = [61074, 46368, 34724, 17180, 4649]"] ;
0 -> 1 [labeldistance=2.5, labelangle=45, headlabel="True"] ;
2 [label="adrg <= 70.5\ngini = 0.753\nsamples = 71884\nvalue = [19467, 20871, 18806, 10057, 2683]"] ;
1 -> 2 ;
3 [label="NL <= 0.5\ngini = 0.6023\nsamples = 14921\nvalue = [8247, 4069, 1903, 590, 112]"] ;
2 -> 3 ;
4 [label="(...)"] ;
3 -> 4 ;
4205 [label="(...)"] ;
3 -> 4205 ;
11136 [label="adrg <= 86.5\ngini = 0.7565\nsamples = 56963\nvalue = [11220, 16802, 16903, 9467, 2571]"] ;
2 -> 11136 ;
11137 [label="(...)"] ;
11136 -> 11137 ;
18842 [label="(...)"] ;
11136 -> 18842 ;
32429 [label="adrg <= 300.5\ngini = 0.683\nsamples = 92111\nvalue = [41607, 25497, 15918, 7123, 1966]"] ;
1 -> 32429 ;
32430 [label="adrg <= 273.5\ngini = 0.7022\nsamples = 54681\nvalue = [22367, 15899, 10729, 4597, 1089]"] ;
32429 -> 32430 ;
32431 [label="(...)"] ;
32430 -> 32431 ;
69506 [label="(...)"] ;
32430 -> 69506 ;
76057 [label="adrg <= 327.0\ngini = 0.6457\nsamples = 37430\nvalue = [19240, 9598, 5189, 2526, 877]"] ;
32429 -> 76057 ;
76058 [label="(...)"] ;
76057 -> 76058 ;
80885 [label="(...)"] ;
76057 -> 80885 ;
94374 [label="adrg <= 45.5\ngini = 0.5157\nsamples = 132982\nvalue = [84707, 35983, 9388, 2380, 524]"] ;
0 -> 94374 [labeldistance=2.5, labelangle=-45, headlabel="False"] ;
94375 [label="adrg <= 36.5\ngini = 0.3826\nsamples = 16527\nvalue = [12652, 2833, 671, 268, 103]"] ;
94374 -> 94375 ;
94376 [label="adrg <= 9.5\ngini = 0.4761\nsamples = 7348\nvalue = [5077, 1486, 501, 214, 70]"] ;
94375 -> 94376 ;
94377 [label="(...)"] ;
94376 -> 94377 ;
96362 [label="(...)"] ;
94376 -> 96362 ;
99383 [label="SJZYTS <= 2.5\ngini = 0.297\nsamples = 9179\nvalue = [7575, 1347, 170, 54, 33]"] ;
94375 -> 99383 ;
99384 [label="(...)"] ;
99383 -> 99384 ;
99629 [label="(...)"] ;
99383 -> 99629 ;
102994 [label="adrg <= 77.5\ngini = 0.5302\nsamples = 116455\nvalue = [72055, 33150, 8717, 2112, 421]"] ;
94374 -> 102994 ;
102995 [label="SJZYTS <= 8.5\ngini = 0.5971\nsamples = 12561\nvalue = [5842, 5290, 1186, 225, 18]"] ;
102994 -> 102995 ;
102996 [label="(...)"] ;
102995 -> 102996 ;
106663 [label="(...)"] ;
102995 -> 106663 ;
112234 [label="adrg <= 328.5\ngini = 0.5163\nsamples = 103894\nvalue = [66213, 27860, 7531, 1887, 403]"] ;
102994 -> 112234 ;
112235 [label="(...)"] ;
112234 -> 112235 ;
170276 [label="(...)"] ;
112234 -> 170276 ;
}