digraph Tree {
node [shape=box] ;
0 [label="X[5] <= 0.5\ngini = 0.4403\nsamples = 984\nvalue = [662, 322]"] ;
1 [label="X[3] <= 0.5\ngini = 0.4444\nsamples = 333\nvalue = [111, 222]"] ;
0 -> 1 [labeldistance=2.5, labelangle=45, headlabel="True"] ;
2 [label="X[0] <= 2.5\ngini = 0.134\nsamples = 180\nvalue = [13, 167]"] ;
1 -> 2 ;
3 [label="X[2] <= 0.5\ngini = 0.4444\nsamples = 3\nvalue = [1, 2]"] ;
2 -> 3 ;
4 [label="gini = 0.0\nsamples = 1\nvalue = [1, 0]"] ;
3 -> 4 ;
5 [label="gini = 0.0\nsamples = 2\nvalue = [0, 2]"] ;
3 -> 5 ;
6 [label="X[1] <= 0.5\ngini = 0.1264\nsamples = 177\nvalue = [12, 165]"] ;
2 -> 6 ;
7 [label="X[0] <= 53.5\ngini = 0.1884\nsamples = 76\nvalue = [8, 68]"] ;
6 -> 7 ;
8 [label="X[0] <= 21.0\ngini = 0.1692\nsamples = 75\nvalue = [7, 68]"] ;
7 -> 8 ;
9 [label="gini = 0.0\nsamples = 15\nvalue = [0, 15]"] ;
8 -> 9 ;
10 [label="X[0] <= 22.5\ngini = 0.2061\nsamples = 60\nvalue = [7, 53]"] ;
8 -> 10 ;
11 [label="gini = 0.5\nsamples = 4\nvalue = [2, 2]"] ;
10 -> 11 ;
12 [label="X[0] <= 27.5\ngini = 0.1626\nsamples = 56\nvalue = [5, 51]"] ;
10 -> 12 ;
13 [label="X[0] <= 26.5\ngini = 0.3457\nsamples = 9\nvalue = [2, 7]"] ;
12 -> 13 ;
14 [label="X[0] <= 25.5\ngini = 0.2188\nsamples = 8\nvalue = [1, 7]"] ;
13 -> 14 ;
15 [label="gini = 0.0\nsamples = 5\nvalue = [0, 5]"] ;
14 -> 15 ;
16 [label="gini = 0.4444\nsamples = 3\nvalue = [1, 2]"] ;
14 -> 16 ;
17 [label="gini = 0.0\nsamples = 1\nvalue = [1, 0]"] ;
13 -> 17 ;
18 [label="X[0] <= 37.0\ngini = 0.1195\nsamples = 47\nvalue = [3, 44]"] ;
12 -> 18 ;
19 [label="X[0] <= 31.5971\ngini = 0.054\nsamples = 36\nvalue = [1, 35]"] ;
18 -> 19 ;
20 [label="X[0] <= 31.0971\ngini = 0.0768\nsamples = 25\nvalue = [1, 24]"] ;
19 -> 20 ;
21 [label="gini = 0.0\nsamples = 8\nvalue = [0, 8]"] ;
20 -> 21 ;
22 [label="gini = 0.1107\nsamples = 17\nvalue = [1, 16]"] ;
20 -> 22 ;
23 [label="gini = 0.0\nsamples = 11\nvalue = [0, 11]"] ;
19 -> 23 ;
24 [label="X[0] <= 39.0\ngini = 0.2975\nsamples = 11\nvalue = [2, 9]"] ;
18 -> 24 ;
25 [label="gini = 0.0\nsamples = 1\nvalue = [1, 0]"] ;
24 -> 25 ;
26 [label="X[0] <= 44.5\ngini = 0.18\nsamples = 10\nvalue = [1, 9]"] ;
24 -> 26 ;
27 [label="X[0] <= 43.0\ngini = 0.32\nsamples = 5\nvalue = [1, 4]"] ;
26 -> 27 ;
28 [label="gini = 0.0\nsamples = 4\nvalue = [0, 4]"] ;
27 -> 28 ;
29 [label="gini = 0.0\nsamples = 1\nvalue = [1, 0]"] ;
27 -> 29 ;
30 [label="gini = 0.0\nsamples = 5\nvalue = [0, 5]"] ;
26 -> 30 ;
31 [label="gini = 0.0\nsamples = 1\nvalue = [1, 0]"] ;
7 -> 31 ;
32 [label="X[0] <= 37.5\ngini = 0.0761\nsamples = 101\nvalue = [4, 97]"] ;
6 -> 32 ;
33 [label="X[0] <= 35.5\ngini = 0.1139\nsamples = 66\nvalue = [4, 62]"] ;
32 -> 33 ;
34 [label="X[0] <= 24.5\ngini = 0.0921\nsamples = 62\nvalue = [3, 59]"] ;
33 -> 34 ;
35 [label="gini = 0.0\nsamples = 22\nvalue = [0, 22]"] ;
34 -> 35 ;
36 [label="X[0] <= 25.5\ngini = 0.1388\nsamples = 40\nvalue = [3, 37]"] ;
34 -> 36 ;
37 [label="gini = 0.0\nsamples = 1\nvalue = [1, 0]"] ;
36 -> 37 ;
38 [label="X[0] <= 31.0971\ngini = 0.0973\nsamples = 39\nvalue = [2, 37]"] ;
36 -> 38 ;
39 [label="gini = 0.0\nsamples = 9\nvalue = [0, 9]"] ;
38 -> 39 ;
40 [label="X[0] <= 32.0971\ngini = 0.1244\nsamples = 30\nvalue = [2, 28]"] ;
38 -> 40 ;
41 [label="gini = 0.1372\nsamples = 27\nvalue = [2, 25]"] ;
40 -> 41 ;
42 [label="gini = 0.0\nsamples = 3\nvalue = [0, 3]"] ;
40 -> 42 ;
43 [label="gini = 0.375\nsamples = 4\nvalue = [1, 3]"] ;
33 -> 43 ;
44 [label="gini = 0.0\nsamples = 35\nvalue = [0, 35]"] ;
32 -> 44 ;
45 [label="X[0] <= 38.5\ngini = 0.4605\nsamples = 153\nvalue = [98, 55]"] ;
1 -> 45 ;
46 [label="X[0] <= 32.5\ngini = 0.4657\nsamples = 149\nvalue = [94, 55]"] ;
45 -> 46 ;
47 [label="X[0] <= 30.5971\ngini = 0.456\nsamples = 145\nvalue = [94, 51]"] ;
46 -> 47 ;
48 [label="X[0] <= 13.0\ngini = 0.497\nsamples = 26\nvalue = [14, 12]"] ;
47 -> 48 ;
49 [label="X[0] <= 5.5\ngini = 0.2449\nsamples = 7\nvalue = [6, 1]"] ;
48 -> 49 ;
50 [label="X[0] <= 3.5\ngini = 0.5\nsamples = 2\nvalue = [1, 1]"] ;
49 -> 50 ;
51 [label="gini = 0.0\nsamples = 1\nvalue = [1, 0]"] ;
50 -> 51 ;
52 [label="gini = 0.0\nsamples = 1\nvalue = [0, 1]"] ;
50 -> 52 ;
53 [label="gini = 0.0\nsamples = 5\nvalue = [5, 0]"] ;
49 -> 53 ;
54 [label="X[0] <= 16.5\ngini = 0.4875\nsamples = 19\nvalue = [8, 11]"] ;
48 -> 54 ;
55 [label="gini = 0.0\nsamples = 4\nvalue = [0, 4]"] ;
54 -> 55 ;
56 [label="X[0] <= 21.5\ngini = 0.4978\nsamples = 15\nvalue = [8, 7]"] ;
54 -> 56 ;
57 [label="X[0] <= 19.0\ngini = 0.375\nsamples = 8\nvalue = [6, 2]"] ;
56 -> 57 ;
58 [label="X[0] <= 17.5\ngini = 0.48\nsamples = 5\nvalue = [3, 2]"] ;
57 -> 58 ;
59 [label="gini = 0.5\nsamples = 2\nvalue = [1, 1]"] ;
58 -> 59 ;
60 [label="gini = 0.4444\nsamples = 3\nvalue = [2, 1]"] ;
58 -> 60 ;
61 [label="gini = 0.0\nsamples = 3\nvalue = [3, 0]"] ;
57 -> 61 ;
62 [label="X[0] <= 25.5\ngini = 0.4082\nsamples = 7\nvalue = [2, 5]"] ;
56 -> 62 ;
63 [label="gini = 0.0\nsamples = 3\nvalue = [0, 3]"] ;
62 -> 63 ;
64 [label="X[0] <= 28.5\ngini = 0.5\nsamples = 4\nvalue = [2, 2]"] ;
62 -> 64 ;
65 [label="gini = 0.0\nsamples = 1\nvalue = [1, 0]"] ;
64 -> 65 ;
66 [label="gini = 0.4444\nsamples = 3\nvalue = [1, 2]"] ;
64 -> 66 ;
67 [label="X[0] <= 31.5971\ngini = 0.4406\nsamples = 119\nvalue = [80, 39]"] ;
47 -> 67 ;
68 [label="gini = 0.4425\nsamples = 118\nvalue = [79, 39]"] ;
67 -> 68 ;
69 [label="gini = 0.0\nsamples = 1\nvalue = [1, 0]"] ;
67 -> 69 ;
70 [label="gini = 0.0\nsamples = 4\nvalue = [0, 4]"] ;
46 -> 70 ;
71 [label="gini = 0.0\nsamples = 4\nvalue = [4, 0]"] ;
45 -> 71 ;
72 [label="X[0] <= 13.5\ngini = 0.26\nsamples = 651\nvalue = [551, 100]"] ;
0 -> 72 [labeldistance=2.5, labelangle=-45, headlabel="False"] ;
73 [label="X[3] <= 0.5\ngini = 0.4444\nsamples = 21\nvalue = [7, 14]"] ;
72 -> 73 ;
74 [label="gini = 0.0\nsamples = 9\nvalue = [0, 9]"] ;
73 -> 74 ;
75 [label="X[0] <= 3.5\ngini = 0.4861\nsamples = 12\nvalue = [7, 5]"] ;
73 -> 75 ;
76 [label="X[0] <= 0.5833\ngini = 0.375\nsamples = 4\nvalue = [1, 3]"] ;
75 -> 76 ;
77 [label="gini = 0.0\nsamples = 1\nvalue = [1, 0]"] ;
76 -> 77 ;
78 [label="gini = 0.0\nsamples = 3\nvalue = [0, 3]"] ;
76 -> 78 ;
79 [label="X[0] <= 7.5\ngini = 0.375\nsamples = 8\nvalue = [6, 2]"] ;
75 -> 79 ;
80 [label="gini = 0.0\nsamples = 2\nvalue = [2, 0]"] ;
79 -> 80 ;
81 [label="X[0] <= 10.0\ngini = 0.4444\nsamples = 6\nvalue = [4, 2]"] ;
79 -> 81 ;
82 [label="gini = 0.5\nsamples = 4\nvalue = [2, 2]"] ;
81 -> 82 ;
83 [label="gini = 0.0\nsamples = 2\nvalue = [2, 0]"] ;
81 -> 83 ;
84 [label="X[1] <= 0.5\ngini = 0.2357\nsamples = 630\nvalue = [544, 86]"] ;
72 -> 84 ;
85 [label="X[0] <= 32.5\ngini = 0.1716\nsamples = 496\nvalue = [449, 47]"] ;
84 -> 85 ;
86 [label="X[0] <= 22.5\ngini = 0.1825\nsamples = 443\nvalue = [398, 45]"] ;
85 -> 86 ;
87 [label="X[0] <= 19.5\ngini = 0.0754\nsamples = 51\nvalue = [49, 2]"] ;
86 -> 87 ;
88 [label="X[0] <= 18.5\ngini = 0.1528\nsamples = 24\nvalue = [22, 2]"] ;
87 -> 88 ;
89 [label="gini = 0.0\nsamples = 15\nvalue = [15, 0]"] ;
88 -> 89 ;
90 [label="X[3] <= 0.5\ngini = 0.3457\nsamples = 9\nvalue = [7, 2]"] ;
88 -> 90 ;
91 [label="gini = 0.4444\nsamples = 3\nvalue = [2, 1]"] ;
90 -> 91 ;
92 [label="gini = 0.2778\nsamples = 6\nvalue = [5, 1]"] ;
90 -> 92 ;
93 [label="gini = 0.0\nsamples = 27\nvalue = [27, 0]"] ;
87 -> 93 ;
94 [label="X[0] <= 24.5\ngini = 0.1953\nsamples = 392\nvalue = [349, 43]"] ;
86 -> 94 ;
95 [label="X[0] <= 23.5\ngini = 0.255\nsamples = 20\nvalue = [17, 3]"] ;
94 -> 95 ;
96 [label="X[3] <= 0.5\ngini = 0.1653\nsamples = 11\nvalue = [10, 1]"] ;
95 -> 96 ;
97 [label="gini = 0.0\nsamples = 6\nvalue = [6, 0]"] ;
96 -> 97 ;
98 [label="gini = 0.32\nsamples = 5\nvalue = [4, 1]"] ;
96 -> 98 ;
99 [label="X[2] <= 0.5\ngini = 0.3457\nsamples = 9\nvalue = [7, 2]"] ;
95 -> 99 ;
100 [label="gini = 0.2778\nsamples = 6\nvalue = [5, 1]"] ;
99 -> 100 ;
101 [label="gini = 0.4444\nsamples = 3\nvalue = [2, 1]"] ;
99 -> 101 ;
102 [label="X[0] <= 28.5\ngini = 0.1919\nsamples = 372\nvalue = [332, 40]"] ;
94 -> 102 ;
103 [label="X[0] <= 26.5\ngini = 0.1139\nsamples = 33\nvalue = [31, 2]"] ;
102 -> 103 ;
104 [label="X[3] <= 0.5\ngini = 0.1653\nsamples = 22\nvalue = [20, 2]"] ;
103 -> 104 ;
105 [label="X[0] <= 25.5\ngini = 0.1975\nsamples = 9\nvalue = [8, 1]"] ;
104 -> 105 ;
106 [label="gini = 0.0\nsamples = 5\nvalue = [5, 0]"] ;
105 -> 106 ;
107 [label="gini = 0.375\nsamples = 4\nvalue = [3, 1]"] ;
105 -> 107 ;
108 [label="X[0] <= 25.5\ngini = 0.142\nsamples = 13\nvalue = [12, 1]"] ;
104 -> 108 ;
109 [label="gini = 0.375\nsamples = 4\nvalue = [3, 1]"] ;
108 -> 109 ;
110 [label="gini = 0.0\nsamples = 9\nvalue = [9, 0]"] ;
108 -> 110 ;
111 [label="gini = 0.0\nsamples = 11\nvalue = [11, 0]"] ;
103 -> 111 ;
112 [label="X[0] <= 29.5\ngini = 0.1991\nsamples = 339\nvalue = [301, 38]"] ;
102 -> 112 ;
113 [label="X[3] <= 0.5\ngini = 0.32\nsamples = 5\nvalue = [4, 1]"] ;
112 -> 113 ;
114 [label="gini = 0.0\nsamples = 2\nvalue = [2, 0]"] ;
113 -> 114 ;
115 [label="gini = 0.4444\nsamples = 3\nvalue = [2, 1]"] ;
113 -> 115 ;
116 [label="X[0] <= 31.5971\ngini = 0.197\nsamples = 334\nvalue = [297, 37]"] ;
112 -> 116 ;
117 [label="X[0] <= 31.0971\ngini = 0.1954\nsamples = 328\nvalue = [292, 36]"] ;
116 -> 117 ;
118 [label="X[2] <= 0.5\ngini = 0.142\nsamples = 13\nvalue = [12, 1]"] ;
117 -> 118 ;
119 [label="gini = 0.0\nsamples = 4\nvalue = [4, 0]"] ;
118 -> 119 ;
120 [label="X[0] <= 30.5\ngini = 0.1975\nsamples = 9\nvalue = [8, 1]"] ;
118 -> 120 ;
121 [label="gini = 0.2188\nsamples = 8\nvalue = [7, 1]"] ;
120 -> 121 ;
122 [label="gini = 0.0\nsamples = 1\nvalue = [1, 0]"] ;
120 -> 122 ;
123 [label="X[2] <= 0.5\ngini = 0.1975\nsamples = 315\nvalue = [280, 35]"] ;
117 -> 123 ;
124 [label="gini = 0.1975\nsamples = 279\nvalue = [248, 31]"] ;
123 -> 124 ;
125 [label="gini = 0.1975\nsamples = 36\nvalue = [32, 4]"] ;
123 -> 125 ;
126 [label="X[3] <= 0.5\ngini = 0.2778\nsamples = 6\nvalue = [5, 1]"] ;
116 -> 126 ;
127 [label="gini = 0.5\nsamples = 2\nvalue = [1, 1]"] ;
126 -> 127 ;
128 [label="gini = 0.0\nsamples = 4\nvalue = [4, 0]"] ;
126 -> 128 ;
129 [label="X[0] <= 40.5\ngini = 0.0726\nsamples = 53\nvalue = [51, 2]"] ;
85 -> 129 ;
130 [label="gini = 0.0\nsamples = 29\nvalue = [29, 0]"] ;
129 -> 130 ;
131 [label="X[0] <= 41.5\ngini = 0.1528\nsamples = 24\nvalue = [22, 2]"] ;
129 -> 131 ;
132 [label="X[3] <= 0.5\ngini = 0.4444\nsamples = 3\nvalue = [2, 1]"] ;
131 -> 132 ;
133 [label="gini = 0.5\nsamples = 2\nvalue = [1, 1]"] ;
132 -> 133 ;
134 [label="gini = 0.0\nsamples = 1\nvalue = [1, 0]"] ;
132 -> 134 ;
135 [label="X[3] <= 0.5\ngini = 0.0907\nsamples = 21\nvalue = [20, 1]"] ;
131 -> 135 ;
136 [label="gini = 0.0\nsamples = 15\nvalue = [15, 0]"] ;
135 -> 136 ;
137 [label="X[0] <= 44.5\ngini = 0.2778\nsamples = 6\nvalue = [5, 1]"] ;
135 -> 137 ;
138 [label="gini = 0.0\nsamples = 3\nvalue = [3, 0]"] ;
137 -> 138 ;
139 [label="X[0] <= 46.0\ngini = 0.4444\nsamples = 3\nvalue = [2, 1]"] ;
137 -> 139 ;
140 [label="gini = 0.5\nsamples = 2\nvalue = [1, 1]"] ;
139 -> 140 ;
141 [label="gini = 0.0\nsamples = 1\nvalue = [1, 0]"] ;
139 -> 141 ;
142 [label="X[0] <= 54.5\ngini = 0.4127\nsamples = 134\nvalue = [95, 39]"] ;
84 -> 142 ;
143 [label="X[0] <= 47.5\ngini = 0.4463\nsamples = 116\nvalue = [77, 39]"] ;
142 -> 143 ;
144 [label="X[0] <= 27.5\ngini = 0.4208\nsamples = 103\nvalue = [72, 31]"] ;
143 -> 144 ;
145 [label="X[0] <= 17.5\ngini = 0.4978\nsamples = 15\nvalue = [7, 8]"] ;
144 -> 145 ;
146 [label="gini = 0.0\nsamples = 1\nvalue = [0, 1]"] ;
145 -> 146 ;
147 [label="X[0] <= 20.0\ngini = 0.5\nsamples = 14\nvalue = [7, 7]"] ;
145 -> 147 ;
148 [label="gini = 0.0\nsamples = 2\nvalue = [2, 0]"] ;
147 -> 148 ;
149 [label="X[0] <= 21.5\ngini = 0.4861\nsamples = 12\nvalue = [5, 7]"] ;
147 -> 149 ;
150 [label="gini = 0.0\nsamples = 1\nvalue = [0, 1]"] ;
149 -> 150 ;
151 [label="X[0] <= 22.5\ngini = 0.4959\nsamples = 11\nvalue = [5, 6]"] ;
149 -> 151 ;
152 [label="gini = 0.0\nsamples = 1\nvalue = [1, 0]"] ;
151 -> 152 ;
153 [label="X[0] <= 23.5\ngini = 0.48\nsamples = 10\nvalue = [4, 6]"] ;
151 -> 153 ;
154 [label="gini = 0.0\nsamples = 1\nvalue = [0, 1]"] ;
153 -> 154 ;
155 [label="X[0] <= 26.0\ngini = 0.4938\nsamples = 9\nvalue = [4, 5]"] ;
153 -> 155 ;
156 [label="X[0] <= 24.5\ngini = 0.48\nsamples = 5\nvalue = [2, 3]"] ;
155 -> 156 ;
157 [label="gini = 0.5\nsamples = 2\nvalue = [1, 1]"] ;
156 -> 157 ;
158 [label="gini = 0.4444\nsamples = 3\nvalue = [1, 2]"] ;
156 -> 158 ;
159 [label="gini = 0.5\nsamples = 4\nvalue = [2, 2]"] ;
155 -> 159 ;
160 [label="X[0] <= 38.5\ngini = 0.3861\nsamples = 88\nvalue = [65, 23]"] ;
144 -> 160 ;
161 [label="X[0] <= 33.5\ngini = 0.4224\nsamples = 66\nvalue = [46, 20]"] ;
160 -> 161 ;
162 [label="X[0] <= 31.5971\ngini = 0.3503\nsamples = 53\nvalue = [41, 12]"] ;
161 -> 162 ;
163 [label="X[0] <= 30.5\ngini = 0.3599\nsamples = 51\nvalue = [39, 12]"] ;
162 -> 163 ;
164 [label="X[0] <= 28.5\ngini = 0.2188\nsamples = 8\nvalue = [7, 1]"] ;
163 -> 164 ;
165 [label="gini = 0.4444\nsamples = 3\nvalue = [2, 1]"] ;
164 -> 165 ;
166 [label="gini = 0.0\nsamples = 5\nvalue = [5, 0]"] ;
164 -> 166 ;
167 [label="X[0] <= 31.0971\ngini = 0.3807\nsamples = 43\nvalue = [32, 11]"] ;
163 -> 167 ;
168 [label="gini = 0.4444\nsamples = 3\nvalue = [2, 1]"] ;
167 -> 168 ;
169 [label="gini = 0.375\nsamples = 40\nvalue = [30, 10]"] ;
167 -> 169 ;
170 [label="gini = 0.0\nsamples = 2\nvalue = [2, 0]"] ;
162 -> 170 ;
171 [label="X[0] <= 35.5\ngini = 0.4734\nsamples = 13\nvalue = [5, 8]"] ;
161 -> 171 ;
172 [label="gini = 0.0\nsamples = 2\nvalue = [0, 2]"] ;
171 -> 172 ;
173 [label="X[0] <= 37.5\ngini = 0.4959\nsamples = 11\nvalue = [5, 6]"] ;
171 -> 173 ;
174 [label="X[0] <= 36.5\ngini = 0.5\nsamples = 10\nvalue = [5, 5]"] ;
173 -> 174 ;
175 [label="gini = 0.4898\nsamples = 7\nvalue = [3, 4]"] ;
174 -> 175 ;
176 [label="gini = 0.4444\nsamples = 3\nvalue = [2, 1]"] ;
174 -> 176 ;
177 [label="gini = 0.0\nsamples = 1\nvalue = [0, 1]"] ;
173 -> 177 ;
178 [label="X[0] <= 43.0\ngini = 0.2355\nsamples = 22\nvalue = [19, 3]"] ;
160 -> 178 ;
179 [label="gini = 0.0\nsamples = 7\nvalue = [7, 0]"] ;
178 -> 179 ;
180 [label="X[0] <= 45.5\ngini = 0.32\nsamples = 15\nvalue = [12, 3]"] ;
178 -> 180 ;
181 [label="X[0] <= 44.5\ngini = 0.48\nsamples = 5\nvalue = [3, 2]"] ;
180 -> 181 ;
182 [label="gini = 0.5\nsamples = 2\nvalue = [1, 1]"] ;
181 -> 182 ;
183 [label="gini = 0.4444\nsamples = 3\nvalue = [2, 1]"] ;
181 -> 183 ;
184 [label="X[0] <= 46.5\ngini = 0.18\nsamples = 10\nvalue = [9, 1]"] ;
180 -> 184 ;
185 [label="gini = 0.0\nsamples = 5\nvalue = [5, 0]"] ;
184 -> 185 ;
186 [label="gini = 0.32\nsamples = 5\nvalue = [4, 1]"] ;
184 -> 186 ;
187 [label="X[0] <= 48.5\ngini = 0.4734\nsamples = 13\nvalue = [5, 8]"] ;
143 -> 187 ;
188 [label="gini = 0.0\nsamples = 2\nvalue = [0, 2]"] ;
187 -> 188 ;
189 [label="X[0] <= 51.5\ngini = 0.4959\nsamples = 11\nvalue = [5, 6]"] ;
187 -> 189 ;
190 [label="X[0] <= 49.5\ngini = 0.4898\nsamples = 7\nvalue = [4, 3]"] ;
189 -> 190 ;
191 [label="gini = 0.48\nsamples = 5\nvalue = [2, 3]"] ;
190 -> 191 ;
192 [label="gini = 0.0\nsamples = 2\nvalue = [2, 0]"] ;
190 -> 192 ;
193 [label="X[0] <= 53.0\ngini = 0.375\nsamples = 4\nvalue = [1, 3]"] ;
189 -> 193 ;
194 [label="gini = 0.0\nsamples = 1\nvalue = [0, 1]"] ;
193 -> 194 ;
195 [label="gini = 0.4444\nsamples = 3\nvalue = [1, 2]"] ;
193 -> 195 ;
196 [label="gini = 0.0\nsamples = 18\nvalue = [18, 0]"] ;
142 -> 196 ;
}